   3.1622776e-01   3.1525293e-01   3.1233448e-01   3.0749035e-01   3.0075049e-01   2.9215634e-01   2.8176099e-01   2.6962849e-01   2.5583363e-01   2.4046147e-01   2.2360680e-01   2.0537350e-01   1.8587402e-01
   3.1622776e-01   3.0749035e-01   2.8176099e-01   2.4046147e-01   1.8587402e-01   1.2101512e-01   4.9468931e-02  -2.4810931e-02  -9.7719766e-02  -1.6522853e-01  -2.2360680e-01  -2.6962849e-01  -3.0075046e-01
   3.1622776e-01   2.9215634e-01   2.2360680e-01   1.2101512e-01  -1.3822754e-08  -1.2101512e-01  -2.2360680e-01  -2.9215634e-01  -3.1622776e-01  -2.9215634e-01  -2.2360681e-01  -1.2101517e-01   3.7709782e-09
   3.1622776e-01   2.6962849e-01   1.4356440e-01  -2.4810931e-02  -1.8587400e-01  -2.9215634e-01  -3.1233448e-01  -2.4046150e-01  -9.7719781e-02   7.3821940e-02   2.2360675e-01   3.0749035e-01   3.0075049e-01
   3.1622776e-01   2.4046147e-01   4.9468931e-02  -1.6522853e-01  -3.0075046e-01  -2.9215634e-01  -1.4356445e-01   7.3821940e-02   2.5583363e-01   3.1525293e-01   2.2360680e-01   2.4810998e-02  -1.8587393e-01
   3.1622776e-01   2.0537350e-01  -4.9468916e-02  -2.6962849e-01  -3.0075049e-01  -1.2101517e-01   1.4356445e-01   3.0749035e-01   2.5583363e-01   2.4810998e-02  -2.2360674e-01  -3.1525293e-01  -1.8587393e-01
   3.1622776e-01   1.6522853e-01  -1.4356443e-01  -3.1525296e-01  -1.8587396e-01   1.2101518e-01   3.1233448e-01   2.0537350e-01  -9.7719900e-02  -3.0749035e-01  -2.2360672e-01   7.3821850e-02   3.0075049e-01
   3.1622776e-01   1.2101512e-01  -2.2360680e-01  -2.9215634e-01   3.7709782e-09   2.9215637e-01   2.2360680e-01  -1.2101499e-01  -3.1622776e-01  -1.2101526e-01   2.2360681e-01   2.9215640e-01  -1.1312935e-08
   3.1622776e-01   7.3821925e-02  -2.8176099e-01  -2.0537347e-01   1.8587396e-01   2.9215637e-01  -4.9469046e-02  -3.1525293e-01  -9.7719878e-02   2.6962849e-01   2.2360687e-01  -1.6522862e-01  -3.0075037e-01
   3.1622776e-01   2.4810940e-02  -3.1233448e-01  -7.3821932e-02   3.0075049e-01   1.2101508e-01  -2.8176099e-01  -1.6522844e-01   2.5583366e-01   2.0537356e-01  -2.2360687e-01  -2.4046147e-01   1.8587394e-01
   3.1622776e-01  -2.4810931e-02  -3.1233448e-01   7.3821940e-02   3.0075049e-01  -1.2101499e-01  -2.8176096e-01   1.6522853e-01   2.5583369e-01  -2.0537357e-01  -2.2360700e-01   2.4046163e-01   1.8587390e-01
   3.1622776e-01  -7.3821917e-02  -2.8176099e-01   2.0537347e-01   1.8587400e-01  -2.9215634e-01  -4.9469031e-02   3.1525293e-01  -9.7719803e-02  -2.6962849e-01   2.2360674e-01   1.6522868e-01  -3.0075040e-01
   3.1622776e-01  -1.2101512e-01  -2.2360681e-01   2.9215637e-01   4.3978087e-08  -2.9215634e-01   2.2360681e-01   1.2101516e-01  -3.1622776e-01   1.2101527e-01   2.2360672e-01  -2.9215640e-01   1.8854893e-08
   3.1622776e-01  -1.6522853e-01  -1.4356445e-01   3.1525293e-01  -1.8587393e-01  -1.2101526e-01   3.1233448e-01  -2.0537357e-01  -9.7719975e-02   3.0749041e-01  -2.2360660e-01  -7.3821619e-02   3.0075037e-01
   3.1622776e-01  -2.0537350e-01  -4.9468938e-02   2.6962849e-01  -3.0075046e-01   1.2101509e-01   1.4356445e-01  -3.0749038e-01   2.5583360e-01  -2.4810869e-02  -2.2360685e-01   3.1525293e-01  -1.8587394e-01
   3.1622776e-01  -2.4046150e-01   4.9468942e-02   1.6522853e-01  -3.0075046e-01   2.9215640e-01  -1.4356446e-01  -7.3821828e-02   2.5583360e-01  -3.1525296e-01   2.2360688e-01  -2.4811074e-02  -1.8587390e-01
   3.1622776e-01  -2.6962849e-01   1.4356445e-01   2.4810998e-02  -1.8587393e-01   2.9215640e-01  -3.1233448e-01   2.4046163e-01  -9.7719997e-02  -7.3821619e-02   2.2360700e-01  -3.0749041e-01   3.0075040e-01
   3.1622776e-01  -2.9215634e-01   2.2360675e-01  -1.2101499e-01  -9.1727145e-08   1.2101516e-01  -2.2360700e-01   2.9215646e-01  -3.1622776e-01   2.9215631e-01  -2.2360674e-01   1.2101510e-01   5.7675970e-07
   3.1622776e-01  -3.0749035e-01   2.8176099e-01  -2.4046142e-01   1.8587402e-01  -1.2101518e-01   4.9468756e-02   2.4811037e-02  -9.7719774e-02   1.6522852e-01  -2.2360672e-01   2.6962841e-01  -3.0075058e-01
   3.1622776e-01  -3.1525296e-01   3.1233448e-01  -3.0749035e-01   3.0075049e-01  -2.9215631e-01   2.8176099e-01  -2.6962852e-01   2.5583372e-01  -2.4046163e-01   2.2360660e-01  -2.0537336e-01   1.8587394e-01
